
\data\
ngram 1=103
ngram 2=1256
ngram 3=786

\1-grams:

-0.8287605	</s>	0
-99	<s>	-0.8484463
-1.48335	A	-0.6743829
-2.902479	AND	-0.3754735
-3.805569	APOSTROPHE	-0.676499
-3.805569	APRIL	-0.686401
-3.805569	AREA	-0.686537
-3.203509	AUGUST	-0.2648814
-1.730022	B	-0.6738217
-1.930508	C	-0.2643268
-3.805569	CODE	-0.6751754
-1.801247	D	-0.4405387
-3.805569	DECEMBER	-0.686537
-1.409369	E	-0.5253426
-1.620877	EIGHT	-0.6646845
-3.805569	EIGHTEEN	-0.686469
-3.805569	EIGHTEENTH	-0.6845615
-3.805569	EIGHTH	-0.6845615
-2.629478	EIGHTY	-0.5420721
-3.203509	ELEVEN	-0.6016088
-3.805569	ELEVENTH	-0.6845615
-1.881289	ENTER	-0.4748925
-2.287055	ERASE	-0.2713587
-1.992656	F	-0.3317482
-3.504539	FEBRUARY	-0.6844932
-3.106599	FIFTEEN	-0.2470518
-3.504539	FIFTEENTH	-0.5196252
-3.504539	FIFTH	-0.6741277
-2.237367	FIFTY	-0.1241018
-3.328448	FIRST	-0.1841056
-1.500217	FIVE	-0.7470286
-2.374205	FORTY	-0.3692258
-1.585461	FOUR	-0.9784147
-2.851326	FOURTEEN	-0.203692
-3.805569	FOURTH	-0.6845615
-1.744871	G	-0.6339139
-2.805569	GO	-0.9716622
-1.638251	H	-0.3363098
-3.504539	HALF	-0.4519382
-2.726388	HELP	-1.044213
-2.726388	HUNDRED	-0.2484924
-1.588085	I	-0.5340638
-2.124328	J	-0.3102895
-3.504539	JANUARY	-0.686333
-3.328448	JULY	-0.6836045
-3.504539	JUNE	-0.6838782
-1.960471	K	-0.3052735
-1.662554	L	-0.4726158
-1.856179	M	-0.1942895
-3.328448	MARCH	-0.683673
-3.328448	MAY	-0.6817531
-1.582852	N	-0.7449074
-1.760246	NINE	-0.8834186
-2.328448	NINETEEN	-0.9364725
-2.805569	NINETY	-0.4674969
-3.504539	NINTH	-0.681547
-2.601449	NO	-1.160718
-4.10656	NOVEMBER	0
-1.606912	O	-0.4650981
-3.328448	OCTOBER	-0.6835361
-3.504539	OF	-0.6813407
-1.96672	OH	-0.6755878
-1.361524	ONE	-1.482511
-1.805569	P	-0.4339186
-2.328448	Q	-0.2138538
-1.457264	R	-0.9302779
-2.57512	REPEAT	-1.185542
-2.034717	RUBOUT	-0.2362084
-1.626592	S	-0.5483763
-3.504539	SECOND	-0.5196252
-3.106599	SEPTEMBER	-0.6814782
-1.650233	SEVEN	-0.4839551
-3.106599	SEVENTEEN	-0.474507
-3.805569	SEVENTH	-0.6845615
-2.390595	SEVENTY	-0.5694529
-1.590725	SIX	-0.6678306
-3.328448	SIXTEEN	-0.5632254
-3.805569	SIXTEENTH	-0.6845615
-3.805569	SIXTH	-0.6845615
-1.948236	SIXTY	-0.836988
-2.764176	START	-1.009451
-2.601449	STOP	-1.160718
-1.491702	T	-0.7057943
-2.659441	TEN	-0.8784221
-3.328448	THIRD	-0.1841056
-4.10656	THIRTEEN	0
-3.328448	THIRTIETH	-0.1841056
-2.261501	THIRTY	-0.3963786
-2.851326	THOUSAND	-0.4456519
-1.681717	THREE	-0.5400556
-3.504539	TWELFTH	-0.5196252
-2.851326	TWELVE	-0.5353009
-3.805569	TWENTIETH	-0.6845615
-2.214504	TWENTY	-0.5481257
-1.383965	TWO	-1.240259
-1.776185	U	-0.1847464
-1.999389	V	-0.7385709
-1.948236	W	-0.3577315
-2.300419	X	-0.3219276
-1.999389	Y	-0.2573077
-2.48335	YES	-1.272692
-2.152356	Z	-0.06125715
-2.249266	ZERO	-0.4307342
\2-grams:

-1.800717	<s> A	-0.1356221
-3.076865	<s> APRIL	0
-3.076865	<s> AREA	0
-2.374748	<s> AUGUST	-0.1798202
-1.52965	<s> B	0.06006524
-1.746359	<s> C	-0.04517677
-1.897627	<s> D	-0.2419263
-3.076865	<s> DECEMBER	0
-1.800717	<s> E	-0.05338167
-2.073718	<s> EIGHT	-0.05467396
-3.076865	<s> EIGHTEEN	0
-2.8312	<s> ELEVEN	0
-1.052529	<s> ENTER	-0.1478444
-1.458294	<s> ERASE	0.01930945
-1.800717	<s> F	-0.09522486
-3.076865	<s> FEBRUARY	0
-2.073718	<s> FIFTY	-0.1632424
-1.772688	<s> FIVE	0.03085208
-3.076865	<s> FORTY	0
-1.485447	<s> FOUR	-0.3128316
-3.076865	<s> FOURTEEN	0
-1.800717	<s> G	-0.1117693
-1.976808	<s> GO	0
-1.746359	<s> H	-0.05147602
-1.897627	<s> HELP	0
-2.374748	<s> I	0
-1.698055	<s> J	-0.02035761
-2.8312	<s> JANUARY	0
-2.957366	<s> JULY	0
-2.8312	<s> JUNE	0
-2.073718	<s> K	-0.1221853
-1.897627	<s> L	-0.06568983
-1.499687	<s> M	-0.3171238
-2.957366	<s> MARCH	0
-2.8312	<s> MAY	0
-1.862865	<s> N	-0.1535326
-2.68854	<s> NINE	0
-3.076865	<s> NINTH	0
-1.772688	<s> NO	0
-2.022566	<s> O	-0.2202579
-2.957366	<s> OCTOBER	0
-2.957366	<s> OH	-0.1009725
-1.017767	<s> ONE	-0.3413298
-1.184417	<s> P	-0.598122
-2.8312	<s> Q	0
-1.862865	<s> R	-0.04657467
-1.746359	<s> REPEAT	0
-1.205956	<s> RUBOUT	0.03955215
-1.499687	<s> S	-0.1991024
-2.374748	<s> SEPTEMBER	0
-1.935416	<s> SEVEN	-0.03063122
-1.675778	<s> SIX	-0.07445785
-2.8312	<s> SIXTY	0
-1.935416	<s> START	0
-1.772688	<s> STOP	0
-1.897627	<s> T	-0.1793821
-2.277838	<s> TEN	0
-2.374748	<s> THIRTY	0
-1.772688	<s> THREE	-0.1303023
-2.68854	<s> TWELVE	-0.008973151
-3.076865	<s> TWENTY	0
-1.596597	<s> TWO	-0.1438572
-2.8312	<s> U	0
-1.897627	<s> V	0.04852808
-1.976808	<s> W	-0.1333954
-2.277838	<s> X	0
-2.957366	<s> Y	0
-1.654589	<s> YES	0
-2.374748	<s> Z	0
-1.146128	A </s>	0
-1.720159	A A	0
-2.176611	A B	0
-1.243038	A C	-0.00835821
-1.322219	A D	0.01815102
-2.302777	A E	-0.1437733
-2.176611	A F	0
-1.720159	A G	-0.09476794
-1.720159	A H	-0.08994737
-2.176611	A HALF	0.204783
-2.302777	A I	0
-2.422276	A J	0
-2.302777	A K	0
-1.176091	A L	0.01657817
-1.208276	A M	-0.09462596
-0.9242793	A N	0.001392752
-2.422276	A NINETY	0
-2.302777	A P	0
-0.7094355	A R	0.08549535
-1.322219	A S	-0.07076552
-2.302777	A SIX	0
-1.322219	A T	0.008742243
-2.422276	A TWO	0
-2.176611	A U	0
-1.243038	A V	-0.1343798
-2.302777	A W	0
-2.422276	A X	0
-1.623249	A Y	-0.06549203
-2.422276	A Z	0
-0.7574816	AND A	-0.3139842
-0.8836474	AND EIGHTY	-0.00785549
-1.003147	AND FIFTY	0
-1.003147	AND SIXTY	0
-1.003147	AND TWENTY	0
-0.1000571	APOSTROPHE H	0
-0.1000571	APRIL THIRTIETH	0
-0.1000571	AREA CODE	0
-0.7021171	AUGUST SIXTEENTH	0
-0.5826175	AUGUST TWENTY	-0.1680893
-1.230449	B A	-0.1759596
-2.175604	B B	0
-2.175604	B D	0
-1.034154	B E	-0.1209656
-2.175604	B EIGHT	0
-2.175604	B FIVE	0
-1.929939	B FORTY	0
-2.175604	B G	0
-2.175604	B H	0
-2.175604	B I	0
-1.929939	B J	0
-2.175604	B K	0
-2.175604	B L	0
-2.056104	B M	0
-1.376577	B O	-0.1442873
-2.175604	B ONE	0
-2.175604	B P	0
-1.034154	B R	-0.2706121
-2.056104	B S	-0.1479846
-1.929939	B SEVEN	0
-1.929939	B SEVENTY	-0.2990563
-2.175604	B SIX	0
-0.3595436	B U	-1.410895
-2.175604	B V	0
-2.175604	B W	0
-2.056104	B X	0
-2.175604	B Y	0
-2.175604	B Z	0
-1.729453	C </s>	0
-1.029963	C A	-0.07878397
-1.729453	C B	0
-1.975118	C C	0
-1.975118	C D	0
-1.029963	C E	-0.11604
-1.975118	C F	0
-1.729453	C FIVE	0
-0.69897	C H	-0.1936887
-1.975118	C I	0
-1.975118	C J	0
-0.9208187	C K	-0.07742115
-1.855619	C L	0
-1.975118	C M	0
-1.586792	C O	-0.2530489
-1.975118	C R	0
-1.975118	C S	0
-1.975118	C SEVEN	0
-1.975118	C T	0
-1.729453	C THIRTY	-0.2920931
-1.975118	C TWO	0
-1.975118	C U	0
-1.975118	C V	0
-1.729453	C W	0
-1.729453	C Y	0
-1.855619	C Z	0
-0.1000571	CODE FOUR	0
-0.6063814	D </s>	0
-0.9629287	D A	-0.1309882
-1.858713	D B	0
-1.984879	D D	0
-1.159223	D E	-0.1039419
-1.858713	D F	0
-2.104378	D FORTY	0
-2.104378	D H	0
-1.858713	D I	0
-2.104378	D J	0
-1.984879	D K	0
-2.104378	D L	0
-1.858713	D M	0
-2.104378	D N	0
-1.050079	D O	-0.08662204
-2.104378	D OH	0
-1.858713	D ONE	0
-2.104378	D P	0
-1.858713	D Q	0
-1.050079	D R	-0.1553946
-1.858713	D S	0
-1.858713	D TWO	0
-2.104378	D U	0
-2.104378	D V	0
-1.305351	D W	-0.1232102
-1.984879	D Y	-0.01123522
-2.104378	D Z	0
-0.1000571	DECEMBER EIGHTEENTH	0
-0.7834155	E </s>	0
-1.16575	E A	-0.1228603
-2.250591	E B	0
-2.250591	E C	0
-1.551101	E D	-0.02901598
-1.396199	E E	-0.08130328
-2.250591	E EIGHT	0
-2.376757	E F	0
-2.376757	E FOUR	0
-1.794139	E G	0
-2.496256	E H	0
-1.794139	E I	-0.2842859
-2.250591	E J	-0.304046
-2.496256	E K	0
-1.053777	E L	-0.1132548
-1.794139	E M	-0.1232823
-0.981226	E N	-0.353295
-2.496256	E O	0
-2.10793	E P	-0.1727468
-2.496256	E Q	0
-0.9048377	E R	-0.03923625
-1.441957	E S	-0.08156833
-2.496256	E SEVENTY	0
-1.493109	E T	-0.1666712
-2.496256	E THIRTY	0
-2.250591	E THREE	0
-2.496256	E TWO	0
-2.376757	E U	0
-1.441957	E V	-0.1896275
-1.192079	E W	-0.1453106
-2.496256	E X	0
-2.10793	E Y	-0.04683352
-2.250591	E Z	0
-0.4771213	EIGHT </s>	0
-1.896423	EIGHT EIGHT	-0.123107
-1.184691	EIGHT FIVE	0.04017851
-2.284749	EIGHT FORTY	0
-1.0086	EIGHT FOUR	0.1133971
-2.284749	EIGHT FOURTEEN	0
-2.165249	EIGHT HUNDRED	-0.1072733
-1.485721	EIGHT NINE	0.09696499
-1.896423	EIGHT OH	0
-1.339593	EIGHT ONE	-0.052016
-1.281601	EIGHT SEVEN	0.1461419
-2.039083	EIGHT SEVENTY	-0.1571849
-1.896423	EIGHT SIX	0.1031536
-2.165249	EIGHT SIXTY	0
-2.284749	EIGHT THIRTY	0
-2.284749	EIGHT THOUSAND	0
-1.10551	EIGHT THREE	0.0271278
-2.039083	EIGHT TWENTY	0
-1.230449	EIGHT TWO	-0.1663547
-1.582631	EIGHT ZERO	0.1708701
-0.1000571	EIGHTEEN FEBRUARY	0
-0.1000571	EIGHTEENTH NINETEEN	0
-0.1000571	EIGHTH NINETEEN	0
-1.276148	EIGHTY EIGHT	0
-1.276148	EIGHTY FIFTH	0
-1.276148	EIGHTY FIVE	0
-1.276148	EIGHTY FOUR	0
-1.156649	EIGHTY NINE	0.06898455
-1.276148	EIGHTY ONE	0
-1.276148	EIGHTY SEVEN	0
-0.4771213	EIGHTY SIX	-0.09535006
-1.276148	EIGHTY THREE	0
-0.7021171	ELEVEN </s>	0
-0.7021171	ELEVEN NINE	0
-0.7021171	ELEVEN SEVENTEEN	0
-0.7021171	ELEVEN SIXTY	0
-0.1000571	ELEVENTH NINETEEN	0
-1.021189	ENTER EIGHT	0
-2.024336	ENTER EIGHTY	0
-2.024336	ENTER FIFTEEN	0
-1.225309	ENTER FIFTY	-0.08836808
-1.63601	ENTER FIVE	-0.06060421
-1.904837	ENTER FORTY	0
-1.63601	ENTER FOUR	-0.02302963
-2.024336	ENTER FOURTEEN	0
-1.322219	ENTER NINE	0
-1.904837	ENTER NINETY	0
-1.322219	ENTER ONE	0
-0.9700368	ENTER SEVEN	0.1410819
-1.322219	ENTER SEVENTY	0.02954093
-1.021189	ENTER SIX	0.05707958
-1.021189	ENTER SIXTY	-0.1099509
-1.904837	ENTER THIRTY	0
-1.778671	ENTER THREE	0
-2.024336	ENTER TWENTY	0
-1.63601	ENTER TWO	-0.05014455
-2.024336	ENTER ZERO	0
-1.618571	ERASE A	0
-1.618571	ERASE B	0
-1.372905	ERASE C	0
-1.372905	ERASE E	0
-1.618571	ERASE F	0
-1.372905	ERASE G	0
-1.372905	ERASE I	0
-1.372905	ERASE J	0
-1.618571	ERASE K	0
-1.618571	ERASE M	0
-1.618571	ERASE N	0
-1.499071	ERASE O	-0.1785755
-1.372905	ERASE Q	0
-1.618571	ERASE R	0
-1.372905	ERASE S	0
-1.618571	ERASE T	0
-1.499071	ERASE V	0
-1.372905	ERASE W	0
-1.618571	ERASE X	0
-1.618571	ERASE Y	0
-1.618571	ERASE Z	0
-1.91297	F </s>	0
-1.91297	F A	0
-1.667305	F B	0
-1.91297	F D	0
-0.9098234	F E	0
-1.91297	F EIGHT	0
-1.793471	F F	0
-1.667305	F FIVE	0
-1.91297	F G	0
-1.667305	F H	0
-0.9678153	F I	-0.05889146
-1.667305	F J	0
-1.667305	F K	0
-1.667305	F M	0
-1.113943	F O	-0.1731174
-1.91297	F Q	0
-1.113943	F R	-0.1605116
-1.91297	F S	0
-1.91297	F SIX	0
-1.210853	F T	-0.0927545
-1.91297	F THIRTY	0
-1.91297	F TWENTY	0
-1.793471	F TWO	-0.07409667
-1.91297	F V	0
-1.210853	F X	0
-1.667305	F Y	0
-1.91297	F Z	0
-0.4010871	FEBRUARY EIGHTH	0
-0.4010871	FEBRUARY NINETEEN	0
-0.6795275	FIFTEEN </s>	0
-0.7990271	FIFTEEN NINETEEN	0
-0.7990271	FIFTEEN SIXTY	0
-0.1554216	FIFTEENTH NINETEEN	0.2571456
-0.4010871	FIFTH NINETEEN	0
-0.4010871	FIFTH S	0
-1.422593	FIFTY </s>	0
-1.279933	FIFTY EIGHT	-0.1616713
-0.9661418	FIFTY FIVE	-0.1907782
-1.548759	FIFTY FOUR	-0.342543
-1.668259	FIFTY NINE	0
-1.279933	FIFTY ONE	-0.2400708
-1.422593	FIFTY SEVEN	0
-1.279933	FIFTY SIX	0.004195914
-1.668259	FIFTY SIXTY	0
-1.422593	FIFTY THREE	0
-0.9661418	FIFTY TWO	-0.201588
-0.4576787	FIRST NINETEEN	0.07583821
-0.6151553	FIVE </s>	0
-2.017082	FIVE EIGHT	-0.1616713
-2.017082	FIVE FIVE	0.03835353
-2.405408	FIVE FORTY	0
-2.017082	FIVE FOUR	0.002737582
-2.159743	FIVE HUNDRED	0
-2.405408	FIVE M	0
-1.460253	FIVE NINE	0.1833818
-1.402261	FIVE OH	-0.07631457
-1.12926	FIVE ONE	-0.1220263
-2.017082	FIVE SEVEN	0.1388804
-1.460253	FIVE SIX	-0.09892517
-2.405408	FIVE SIXTEEN	0
-2.405408	FIVE T	0
-2.405408	FIVE TEN	0
-2.159743	FIVE THIRTY	0
-1.351109	FIVE THREE	-0.2298369
-2.405408	FIVE TWENTY	0
-0.4728425	FIVE TWO	-0.3145716
-1.606381	FIVE ZERO	0.1037959
-1.411921	FORTY EIGHT	-0.3221018
-0.8293038	FORTY FIVE	-0.6024795
-1.411921	FORTY FOUR	-0.342543
-1.411921	FORTY NINE	0.06898455
-1.285755	FORTY ONE	-0.2191939
-0.8293038	FORTY SEVEN	-0.03691569
-1.531421	FORTY SIX	0
-0.8293038	FORTY THREE	0
-1.411921	FORTY TWO	-0.388343
-0.5211381	FOUR </s>	0
-2.320165	FOUR AND	0
-1.317018	FOUR EIGHT	-0.05605819
-2.0745	FOUR FIFTY	0
-1.37501	FOUR FIVE	-0.03603976
-2.0745	FOUR FORTY	0
-1.044017	FOUR FOUR	0.03952196
-1.618048	FOUR NINE	0
-2.320165	FOUR NINETY	0
-1.931839	FOUR OH	-0.0496373
-0.8776854	FOUR ONE	-0.3863633
-1.265866	FOUR SEVEN	0.1036081
-2.320165	FOUR SEVENTY	0
-1.317018	FOUR SIX	0.06325516
-2.0745	FOUR SIXTY	0
-2.320165	FOUR THIRTY	0
-2.200665	FOUR THOUSAND	0
-1.521138	FOUR THREE	0.07854896
-2.0745	FOUR TWENTY	0
-1.015988	FOUR TWO	-0.15111
-2.320165	FOUR ZERO	0
-0.9348	FOURTEEN </s>	0
-1.0543	FOURTEEN A	0
-1.0543	FOURTEEN EIGHTY	0
-1.0543	FOURTEEN FOURTEEN	0
-0.9348	FOURTEEN SIXTY	0
-0.1000571	FOURTH NINETEEN	0
-2.041255	G </s>	0
-1.106455	G A	-0.1831945
-2.160755	G B	0
-1.915089	G C	0
-1.915089	G D	0
-1.915089	G E	0
-2.160755	G EIGHTY	0
-2.160755	G FORTY	0
-0.3446945	G H	-0.8536259
-1.157608	G I	-0.1256191
-1.915089	G J	0
-1.915089	G K	0
-1.106455	G L	-0.1784199
-1.458638	G N	0
-1.915089	G NINE	0
-2.160755	G O	0
-2.160755	G P	0
-2.160755	G Q	0
-1.915089	G R	0
-2.160755	G S	0
-2.160755	G SEVENTY	0
-2.160755	G T	0
-1.915089	G TWO	0
-2.160755	G U	0
-1.915089	G V	0
-1.915089	G W	0
-0.04139268	GO </s>	0
-0.4349236	H </s>	0
-0.8055895	H A	-0.05378017
-1.565257	H B	0
-1.264227	H E	-0.06841432
-2.147875	H F	0
-2.267375	H FIFTY	0
-2.267375	H FOUR	0
-2.021709	H G	0
-2.267375	H H	0
-1.879048	H I	0
-2.021709	H K	0
-2.021709	H L	0
-1.565257	H N	0
-2.267375	H NINE	0
-1.053374	H O	-0.03206975
-2.267375	H ONE	0
-2.267375	H P	0
-2.267375	H Q	0
-2.147875	H R	-0.145272
-2.267375	H SEVEN	0
-2.267375	H SEVENTY	0
-2.267375	H SIX	0
-2.147875	H T	-0.1348974
-2.267375	H THREE	0
-2.267375	H TWO	0
-2.021709	H U	0
-2.267375	H W	0
-2.267375	H X	0
-2.147875	H Y	0
-2.267375	H Z	0
-0.1554216	HALF </s>	0
-0.03476211	HELP </s>	0
-0.9335728	HUNDRED </s>	0
-0.7909124	HUNDRED AND	-0.1204223
-0.9335728	HUNDRED EIGHTY	0
-1.179238	HUNDRED FORTY	0
-1.179238	HUNDRED TWENTY	0
-1.518514	I </s>	0
-1.615424	I A	-0.09797523
-2.198041	I B	-0.1801132
-1.071356	I C	-0.1237184
-1.518514	I D	0.02268779
-1.263241	I E	0.02192089
-1.615424	I F	-0.1025764
-2.317541	I FIFTEEN	0
-2.071876	I FIVE	0
-2.317541	I FOUR	0
-1.615424	I G	0.1311974
-2.071876	I K	0
-1.217484	I L	-0.1329489
-1.615424	I M	-0.07286451
-0.8952646	I N	-0.08357561
-2.317541	I O	0
-2.198041	I P	0
-2.198041	I Q	0
-2.198041	I R	0
-1.929215	I S	-0.129392
-2.317541	I SIXTY	0
-0.5185139	I T	-1.040307
-2.317541	I THIRTY	0
-2.317541	I U	0
-1.929215	I V	-0.1443665
-2.317541	I Y	0
-1.661799	J A	-0.1561937
-1.781298	J B	0
-1.535633	J C	0
-1.781298	J D	0
-0.9822713	J E	-0.07010863
-1.781298	J FIVE	0
-1.535633	J FOUR	0
-1.781298	J G	0
-1.535633	J H	0
-1.781298	J J	0
-1.535633	J K	0
-1.781298	J L	0
-1.781298	J M	0
-1.781298	J N	0
-0.8361432	J O	-0.1269302
-1.535633	J ONE	0
-1.535633	J Q	0
-1.781298	J S	0
-1.661799	J SEVEN	0
-1.781298	J T	0
-1.535633	J U	0
-1.535633	J V	0
-1.781298	J W	0
-1.781298	J X	0
-1.535633	J Z	0
-0.4010871	JANUARY FIFTEENTH	0
-0.4010871	JANUARY TWELFTH	0
-0.5771784	JULY THIRTIETH	0
-0.5771784	JULY TWELFTH	0
-0.5771784	JULY TWENTY	0
-0.4010871	JUNE ELEVENTH	0
-0.4010871	JUNE TWENTY	0
-0.8037053	K </s>	0
-1.146128	K A	-0.3599412
-1.945155	K C	0
-1.945155	K D	0
-0.9420081	K E	-0.04242047
-1.945155	K EIGHT	0
-1.945155	K EIGHTY	0
-1.69949	K F	0
-1.69949	K H	0
-1.243038	K I	-0.07103845
-1.69949	K J	0
-1.945155	K K	0
-1.69949	K L	0
-1.945155	K M	0
-1.945155	K NINE	0
-1.945155	K NINETY	0
-1.945155	K O	0
-1.945155	K R	0
-1.69949	K S	0
-1.69949	K SIX	0
-1.825655	K T	0
-1.945155	K THREE	0
-1.945155	K TWENTY	0
-1.69949	K TWO	0
-1.69949	K U	0
-1.945155	K V	0
-1.243038	K W	0
-1.69949	K X	0
-1.69949	K Y	-0.1441742
-1.69949	K Z	0
-1.029071	L </s>	0
-0.9968868	L A	-0.2111558
-2.243072	L C	0
-1.143015	L D	0.005414136
-0.6958568	L E	-0.1393915
-2.243072	L EIGHT	0
-2.123572	L F	0
-2.243072	L FIFTY	0
-2.123572	L G	-0.1485548
-2.243072	L H	0
-1.063834	L I	-0.09411397
-2.123572	L K	0
-0.8877423	L L	-0.05260412
-1.997406	L M	0
-2.243072	L N	0
-2.243072	L NINE	0
-1.444045	L O	0
-2.123572	L R	0
-2.123572	L S	0
-2.243072	L SEVENTY	0
-2.243072	L T	0
-2.243072	L THIRTY	0
-2.243072	L THREE	0
-2.243072	L TWO	0
-2.123572	L U	0
-1.444045	L Y	-0.0560482
-1.997406	L Z	0
-2.243072	L ZERO	0
-1.929947	M </s>	0
-0.6271707	M A	-0.1444003
-1.803782	M B	0
-2.049447	M C	0
-2.049447	M D	0
-1.0463	M E	-0.1353555
-2.049447	M EIGHT	0
-2.049447	M F	0
-2.049447	M FIFTY	0
-2.049447	M FORTY	0
-2.049447	M FOUR	0
-2.049447	M G	0
-1.803782	M H	0
-1.661121	M I	0.02921581
-1.803782	M J	0
-2.049447	M K	0
-1.929947	M M	0
-1.929947	M N	0
-0.9079973	M O	-0.1891211
-1.34733	M P	-0.1124311
-2.049447	M Q	0
-1.803782	M S	0
-2.049447	M SEVEN	0
-2.049447	M T	0
-2.049447	M THIRTY	0
-2.049447	M TWO	0
-1.929947	M U	0
-1.803782	M V	0
-2.049447	M X	0
-1.803782	M Y	0
-0.5771784	MARCH THIRD	0
-0.5771784	MARCH TWENTIETH	0
-0.5771784	MARCH TWENTY	0
-0.5771784	MAY NINETEEN	0
-0.5771784	MAY NINTH	0
-0.5771784	MAY TWENTY	0
-0.6429329	N </s>	0
-1.181324	N A	-0.08779611
-1.620656	N B	0
-1.523746	N C	-0.05826765
-1.108773	N D	-0.1140511
-0.9216865	N E	-0.06091906
-2.322773	N F	0
-2.322773	N FOUR	0
-1.319626	N G	0.2011354
-2.077108	N H	0
-1.181324	N I	-0.1385495
-2.322773	N J	0
-2.322773	N K	0
-2.077108	N L	0
-2.322773	N M	0
-1.268474	N N	0.03721855
-1.620656	N O	0
-2.203274	N P	0
-2.077108	N R	0
-1.523746	N S	0
-2.322773	N SEVENTY	0
-2.322773	N SIX	0
-1.268474	N T	-0.1627555
-2.322773	N THREE	0
-1.523746	N U	-0.4334902
-2.077108	N X	0
-2.203274	N Y	0
-2.203274	N Z	0
-0.3551269	NINE </s>	0
-2.14538	NINE AND	0
-2.02588	NINE EIGHT	0
-2.14538	NINE EIGHTY	0
-1.899715	NINE FIFTY	0
-1.200225	NINE FIVE	0.108697
-2.14538	NINE FORTY	0
-1.443263	NINE FOUR	0.02549019
-2.14538	NINE HUNDRED	0
-1.443263	NINE NINE	-0.05850682
-2.14538	NINE NINETEEN	0
-2.14538	NINE OF	0
-2.14538	NINE OH	0
-1.346353	NINE ONE	-0.1310679
-2.02588	NINE SEVEN	0
-2.14538	NINE SEVENTY	0
-1.045323	NINE SIX	-0.01446781
-2.14538	NINE SIXTY	0
-1.899715	NINE THIRTY	0
-1.346353	NINE THREE	-0.01698802
-1.899715	NINE TWENTY	0
-1.346353	NINE TWO	-0.05626337
-2.14538	NINE ZERO	0
-1.331513	NINETEEN FIFTY	-0.2671979
-1.331513	NINETEEN FORTY	-0.2997298
-1.457679	NINETEEN SEVENTY	-0.405439
-0.1346986	NINETEEN SIXTY	-0.085318
-1.577178	NINETEEN TWENTY	0
-0.8543916	NINETY EIGHT	0
-0.8543916	NINETY FIVE	-0.1962258
-0.8543916	NINETY FOUR	-0.1612356
-1.100057	NINETY ONE	0
-1.100057	NINETY SEVEN	0
-0.8543916	NINETY SIX	-0.1314256
-0.4010871	NINTH OF	0
-0.4010871	NINTH SIXTY	0
-0.02632894	NO </s>	0
-1.499687	O </s>	0
-1.353559	O A	-0.1290721
-2.298714	O APOSTROPHE	0
-1.499687	O B	-0.1611291
-2.298714	O C	0
-1.244415	O D	-0.2248399
-2.298714	O E	0
-2.298714	O EIGHT	0
-2.179214	O F	0
-2.298714	O FIVE	0
-2.298714	O FORTY	0
-2.298714	O FOUR	0
-2.298714	O G	0
-1.596597	O H	-0.2994568
-2.298714	O J	0
-2.053049	O K	0
-1.295567	O L	0
-1.910388	O M	-0.1380105
-0.7514991	O N	-0.2754901
-2.298714	O NINETY	0
-1.084714	O O	-0.2005294
-2.053049	O P	0
-2.298714	O Q	0
-0.9199035	O R	-0.1057111
-1.499687	O S	-0.2051188
-2.298714	O SIXTY	0
-1.910388	O T	-0.04490099
-2.298714	O TWO	0
-1.198657	O U	-0.07600655
-1.244415	O W	-0.1843977
-2.298714	O X	0
-2.053049	O Y	-0.1441742
-2.298714	O Z	0
-0.5771784	OCTOBER FIRST	0
-0.5771784	OCTOBER THIRTIETH	0
-0.5771784	OCTOBER TWENTY	0
-0.4010871	OF SEPTEMBER	0
-0.4010871	OF SIXTY	0
-0.993751	OH </s>	0
-0.8388491	OH EIGHT	0.005825534
-1.55058	OH FIVE	-0.2171026
-1.819407	OH FOUR	-0.1428156
-1.819407	OH NINE	0
-1.693241	OH OH	0
-1.139879	OH ONE	-0.003128171
-0.9357591	OH SEVEN	0.1211028
-0.7596679	OH SIX	-0.107642
-1.139879	OH THREE	0.07854896
-0.9357591	OH TWO	-0.1159347
-0.6958568	ONE </s>	0
-1.489802	ONE EIGHT	0.06399839
-2.544102	ONE ELEVEN	0
-2.544102	ONE FIFTEEN	0
-1.841985	ONE FIFTY	-0.1067442
-0.5748131	ONE FIVE	-0.2820869
-2.544102	ONE FORTY	0
-1.489802	ONE FOUR	-0.1939304
-2.298436	ONE HUNDRED	0
-2.544102	ONE J	0
-1.402652	ONE NINE	0.1883654
-2.544102	ONE NINETY	0
-1.297917	ONE OH	0.02783272
-1.598947	ONE ONE	0.0648651
-1.143015	ONE SEVEN	-0.4244476
-2.298436	ONE SEVENTY	0
-1.598947	ONE SIX	0.03519866
-2.544102	ONE SIXTEEN	0
-1.841985	ONE SIXTY	0
-2.298436	ONE TEN	-0.01585573
-2.298436	ONE THIRTY	-0.2041814
-2.298436	ONE THOUSAND	-0.2435524
-1.297917	ONE THREE	-0.6321919
-2.298436	ONE TWENTY	0
-1.029071	ONE TWO	-0.0227375
-1.745075	ONE ZERO	0
-1.39794	P A	0
-2.100057	P B	0
-2.100057	P C	0
-1.854392	P D	0
-1.854392	P E	0
-2.100057	P EIGHT	0
-2.100057	P F	0
-2.100057	P FORTY	0
-2.100057	P FOUR	0
-1.980557	P G	-0.2368358
-1.711731	P H	0.05395164
-0.3279021	P I	-1.214282
-1.30103	P L	-0.2601529
-1.854392	P N	0
-2.100057	P NINETY	0
-1.711731	P O	-0.07693512
-1.980557	P R	-0.4595184
-1.39794	P S	0
-2.100057	P SEVENTEEN	0
-1.980557	P T	0
-2.100057	P THREE	0
-1.980557	P U	0
-2.100057	P Y	0
-1.577178	Q C	0
-1.457679	Q D	0
-1.331513	Q E	0
-1.577178	Q F	0
-1.331513	Q FIFTY	0
-1.577178	Q FIVE	0
-1.577178	Q G	0
-1.577178	Q I	0
-1.331513	Q K	0
-1.457679	Q N	0
-1.577178	Q ONE	0
-1.577178	Q P	0
-1.457679	Q Q	0
-1.577178	Q SIX	0
-1.331513	Q T	0
-1.577178	Q TWO	0
-1.577178	Q U	0
-1.577178	Q W	0
-1.577178	Q Y	0
-1.577178	Q Z	0
-1.306912	R </s>	0
-1.234362	R A	-0.05324718
-1.746245	R B	0
-2.202697	R C	-0.2199757
-1.394062	R D	-0.2248399
-0.9680936	R E	-0.02241129
-2.202697	R F	0
-0.6323015	R G	-0.6875244
-2.448362	R H	0
-1.069551	R I	-0.2031561
-1.306912	R K	-0.0240068
-1.394062	R L	-0.08651231
-2.060036	R N	-0.125865
-1.026086	R O	-0.02505642
-2.448362	R ONE	0
-2.448362	R Q	0
-1.503207	R R	-0.1008096
-1.746245	R S	-0.275476
-2.448362	R SEVEN	0
-2.448362	R SIXTY	0
-1.503207	R T	-0.1454226
-2.448362	R THIRTY	0
-2.202697	R U	0
-2.202697	R V	0
-2.202697	R W	0
-1.445215	R Y	-0.05307321
-2.202697	R Z	0
-0.02482358	REPEAT </s>	0
-1.870909	RUBOUT A	0
-1.751409	RUBOUT C	0
-1.870909	RUBOUT D	0
-1.625244	RUBOUT E	0
-1.168792	RUBOUT F	0
-1.625244	RUBOUT G	0
-1.751409	RUBOUT H	0
-1.625244	RUBOUT I	0
-1.751409	RUBOUT J	0
-1.870909	RUBOUT L	0
-1.751409	RUBOUT M	0
-1.071882	RUBOUT N	-0.07122812
-1.168792	RUBOUT O	0
-1.625244	RUBOUT P	0
-1.625244	RUBOUT Q	0
-1.751409	RUBOUT R	0
-1.870909	RUBOUT S	0
-1.751409	RUBOUT T	0
-1.071882	RUBOUT U	-0.08427344
-1.625244	RUBOUT V	0
-1.625244	RUBOUT W	0
-1.870909	RUBOUT X	0
-1.870909	RUBOUT Y	0
-1.751409	RUBOUT Z	0
-0.9485281	S </s>	0
-2.033369	S A	0
-0.5068791	S B	-1.422626
-2.279034	S C	0
-1.275887	S E	-0.1249799
-2.033369	S F	0
-1.480007	S H	-0.02692435
-2.279034	S I	0
-2.279034	S J	0
-1.890708	S K	-0.05675231
-2.033369	S L	0
-2.159534	S M	-0.06706566
-2.279034	S N	0
-1.099796	S O	-0.5173463
-2.033369	S ONE	0
-1.480007	S P	-0.0962543
-2.159534	S S	0
-2.279034	S SEVEN	0
-0.9485281	S T	-0.4441443
-2.279034	S THIRTY	0
-2.159534	S U	0
-2.159534	S V	0
-1.576917	S W	0
-2.279034	S X	0
-2.033369	S Z	0
-2.279034	S ZERO	0
-0.1554216	SECOND NINETEEN	0.2571456
-0.7990271	SEPTEMBER FIFTEENTH	0
-0.7990271	SEPTEMBER FIRST	0
-0.7990271	SEPTEMBER NINETEEN	0
-0.7990271	SEPTEMBER SIXTH	0
-0.7990271	SEPTEMBER TWENTY	0
-0.3292612	SEVEN </s>	0
-1.252246	SEVEN EIGHT	-0.02696854
-2.255393	SEVEN FIFTEEN	0
-2.255393	SEVEN FIFTY	0
-1.456366	SEVEN FIVE	-0.09662436
-2.135894	SEVEN FORTY	-0.1143108
-1.553276	SEVEN FOUR	0.02549019
-2.009728	SEVEN FOURTEEN	0
-2.255393	SEVEN HUNDRED	0
-2.255393	SEVEN MAY	0
-1.867067	SEVEN NINE	-0.1429451
-1.867067	SEVEN OH	-0.01430933
-1.456366	SEVEN ONE	0
-2.135894	SEVEN SEVEN	0.09057568
-2.255393	SEVEN SEVENTEEN	0
-2.255393	SEVEN SEVENTY	0
-1.553276	SEVEN SIX	0.05530015
-2.135894	SEVEN SIXTY	0
-2.009728	SEVEN TEN	-0.01585573
-2.009728	SEVEN THIRTY	0
-2.255393	SEVEN THOUSAND	0
-1.553276	SEVEN THREE	0
-2.135894	SEVEN TWENTY	-0.1369502
-1.867067	SEVEN TWO	0
-2.135894	SEVEN ZERO	0.1170832
-0.5533616	SEVENTEEN </s>	0
-0.5533616	SEVENTEEN FIFTY	0
-0.7990271	SEVENTEEN THIRTY	0
-0.1000571	SEVENTH NINETEEN	0
-0.7160034	SEVENTY </s>	0
-1.51503	SEVENTY EIGHT	0
-1.51503	SEVENTY FIVE	0
-1.395531	SEVENTY NINE	0.06898455
-0.5118834	SEVENTY ONE	-0.8565507
-1.395531	SEVENTY SEVEN	0.09057568
-1.51503	SEVENTY SIX	0
-0.8129134	SEVENTY TWO	-0.6132894
-0.458969	SIX </s>	0
-0.8169038	SIX EIGHT	0.05665052
-2.314901	SIX EIGHTY	0
-1.926575	SIX FIVE	-0.06060421
-2.314901	SIX FORTY	0
-1.173451	SIX FOUR	-0.0312873
-2.314901	SIX HUNDRED	0
-1.926575	SIX NINE	-0.0848313
-1.926575	SIX OH	-0.01430933
-1.311754	SIX ONE	0.1436232
-1.926575	SIX SEVEN	0.1018178
-2.314901	SIX SEVENTEEN	0
-1.214844	SIX SIX	0.02796732
-2.314901	SIX SIXTEEN	0
-2.069235	SIX SIXTY	0
-2.069235	SIX THIRTY	0
-2.314901	SIX THOUSAND	0
-1.260601	SIX THREE	0.07544493
-2.314901	SIX TWELVE	0
-2.314901	SIX TWENTY	0
-1.369746	SIX TWO	0.04030054
-2.314901	SIX ZERO	0
-0.5771784	SIXTEEN FORTY	0
-0.3315128	SIXTEEN SIXTY	0
-0.1000571	SIXTEENTH NINETEEN	0
-0.1000571	SIXTH NINETEEN	0
-1.012234	SIXTY </s>	0
-1.158363	SIXTY EIGHT	-0.1047189
-1.95739	SIXTY FIFTY	0
-1.158363	SIXTY FIVE	-0.1601502
-1.569064	SIXTY FOUR	-0.06389493
-0.7112045	SIXTY NINE	-0.92316
-0.9542425	SIXTY ONE	-0.8565507
-0.8159398	SIXTY SEVEN	-0.7668703
-1.83789	SIXTY SIX	-0.312733
-1.012234	SIXTY THREE	-0.3570629
-1.158363	SIXTY TWO	-0.3444237
-0.03778856	START </s>	0
-0.02632894	STOP </s>	0
-1.109747	T </s>	0
-2.168259	T A	0
-2.413924	T B	0
-2.294425	T D	0
-0.9714445	T E	0.04135127
-2.413924	T EIGHTY	0
-2.168259	T F	0
-2.413924	T FIFTY	0
-2.413924	T FOUR	0
-2.294425	T G	0
-1.083418	T H	0.05358374
-1.614897	T I	-0.1967143
-2.413924	T J	0
-2.168259	T K	0
-2.294425	T L	-0.08625492
-2.168259	T M	-0.2000046
-2.413924	T N	0
-2.025598	T O	0.00240732
-2.413924	T P	0
-2.168259	T Q	0
-1.614897	T R	-0.404822
-0.6511094	T S	-1.500814
-2.413924	T SEVENTY	0
-2.413924	T SIXTY	0
-0.5735045	T T	-0.7769758
-2.413924	T V	0
-2.413924	T W	0
-1.711807	T Z	-0.6827108
-0.30103	TEN </s>	0
-1.246185	TEN ONE	0
-1.246185	TEN SEVENTY	0
-1.246185	TEN SIXTY	0
-1.246185	TEN TEN	0
-1.246185	TEN THIRTY	0
-1.246185	TEN TWELVE	0
-1.246185	TEN TWENTY	0
-0.4576787	THIRD NINETEEN	0.3900846
-0.4576787	THIRTIETH NINETEEN	0.07583821
-0.845098	THIRTY </s>	0
-1.524626	THIRTY EIGHT	-0.00785549
-1.255799	THIRTY FIVE	-0.0988851
-1.39846	THIRTY NINE	-0.06395441
-0.640978	THIRTY ONE	-0.1280929
-1.39846	THIRTY SEVEN	-0.04236329
-1.39846	THIRTY SIX	-0.1314256
-1.644125	THIRTY SIXTY	0
-1.39846	THIRTY THREE	-0.1375168
-0.9420081	THIRTY TWO	-0.201588
-0.8086341	THOUSAND </s>	0
-0.8086341	THOUSAND EIGHT	-0.313907
-1.0543	THOUSAND FIVE	0
-1.0543	THOUSAND NINE	0
-1.0543	THOUSAND ONE	0
-1.0543	THOUSAND SEVEN	0
-1.0543	THOUSAND THREE	0
-0.4706391	THREE </s>	0
-1.835583	THREE EIGHT	-0.1616713
-2.223909	THREE EIGHTY	0
-2.223909	THREE ELEVEN	0
-1.278754	THREE FIVE	0.05111041
-1.978243	THREE FORTY	0
-1.835583	THREE FOUR	-0.04117528
-2.223909	THREE FOURTEEN	0
-2.223909	THREE HUNDRED	0
-1.521792	THREE NINE	0.1227714
-1.424882	THREE OH	0
-1.835583	THREE ONE	-0.03966216
-1.424882	THREE SEVEN	-0.08536305
-2.223909	THREE SEVENTEEN	0
-1.978243	THREE SEVENTY	0
-1.835583	THREE SIX	-0.05779426
-1.521792	THREE SIXTY	-0.1182846
-2.223909	THREE THIRTY	0
-1.220762	THREE THREE	0.07461363
-2.223909	THREE TWELVE	0
-2.104409	THREE TWENTY	0
-1.009908	THREE TWO	-0.2301243
-1.521792	THREE ZERO	0.1708701
-0.1554216	TWELFTH NINETEEN	0.2571456
-1.0543	TWELVE </s>	0
-1.0543	TWELVE FIFTY	0
-1.0543	TWELVE FOUR	0
-1.0543	TWELVE NINE	0
-1.0543	TWELVE NINETEEN	0
-1.0543	TWELVE SIXTY	0
-1.0543	TWELVE TEN	0
-0.8086341	TWELVE TWENTY	0
-0.1000571	TWENTIETH NINETEEN	0
-1.445456	TWENTY </s>	0
-0.8920946	TWENTY EIGHT	-0.05178767
-1.691122	TWENTY FIFTH	0
-1.691122	TWENTY FIRST	0
-1.691122	TWENTY FIVE	0
-1.571622	TWENTY FOUR	0
-1.691122	TWENTY FOURTH	0
-0.9890046	TWENTY NINE	0.1227714
-1.445456	TWENTY ONE	0
-1.445456	TWENTY SECOND	0.204783
-1.445456	TWENTY SEVEN	0
-1.691122	TWENTY SEVENTH	0
-0.8920946	TWENTY SIX	-0.04329966
-1.445456	TWENTY THIRD	-0.1307367
-0.8920946	TWENTY THREE	-0.2749048
-1.445456	TWENTY TWO	0
-0.6507519	TWO </s>	0
-1.342423	TWO EIGHT	0.0017398
-2.521661	TWO EIGHTY	0
-2.521661	TWO FIFTEEN	0
-2.521661	TWO FIFTY	0
-1.342423	TWO FIVE	0.2304053
-1.166331	TWO FOUR	-0.1200124
-2.521661	TWO FOURTEEN	0
-2.521661	TWO HUNDRED	0
-1.518514	TWO NINE	0.1592882
-1.380211	TWO OH	-0.01866707
-0.7314078	TWO ONE	-0.07378244
-1.380211	TWO SEVEN	0.0901088
-1.041393	TWO SIX	-0.5969543
-2.521661	TWO SIXTY	0
-2.521661	TWO TEN	0
-2.402161	TWO THIRTY	-0.07124246
-2.521661	TWO THOUSAND	0
-1.342423	TWO THREE	-0.05226667
-2.275995	TWO TWENTY	0
-0.9592059	TWO TWO	0.1580836
-2.133335	TWO ZERO	0.02290419
-2.129441	U </s>	0
-1.883775	U A	0
-2.129441	U B	0
-2.129441	U C	0
-2.129441	U D	0
-1.330414	U E	-0.3761377
-2.129441	U EIGHTY	0
-1.883775	U F	0
-1.883775	U FIVE	0
-2.009941	U FOUR	0
-2.009941	U G	0
-2.129441	U I	0
-1.883775	U J	0
-2.129441	U K	0
-2.009941	U L	-0.1447357
-2.009941	U M	0
-2.009941	U N	0
-2.129441	U O	0
-2.129441	U ONE	0
-2.129441	U Q	0
-0.29699	U R	-0.821567
-1.741115	U S	-0.1543673
-2.129441	U SEVEN	0
-1.427324	U T	0
-2.129441	U THREE	0
-2.129441	U TWO	0
-2.129441	U X	0
-2.129441	U Y	0
-0.8519375	V A	-0.09293332
-1.906237	V C	0
-0.4444521	V E	-0.5696995
-1.906237	V F	0
-1.906237	V FIFTY	0
-0.9610819	V I	-0.1110083
-1.660572	V K	0
-1.906237	V L	0
-1.660572	V M	0
-1.906237	V N	0
-1.906237	V NINE	0
-1.906237	V O	0
-1.906237	V P	0
-1.660572	V Q	-0.3014762
-1.906237	V R	0
-1.906237	V S	0
-1.660572	V SEVEN	-0.04236329
-1.906237	V THIRTY	0
-1.906237	V W	0
-1.906237	V X	0
-1.786737	V Y	0
-1.906237	V Z	0
-1.012234	W </s>	0
-0.90309	W A	-0.09973674
-1.711724	W B	0
-1.95739	W C	0
-1.95739	W D	0
-1.255273	W E	-0.08998642
-1.711724	W EIGHT	-0.1407945
-1.711724	W F	0
-1.95739	W FIVE	0
-1.95739	W FOURTEEN	0
-1.95739	W G	0
-1.711724	W H	0
-1.012234	W I	-0.180587
-1.83789	W L	0
-1.158363	W N	0.01130676
-0.90309	W O	-0.3457345
-1.95739	W P	0
-1.95739	W Q	0
-1.95739	W R	0
-1.95739	W T	0
-1.95739	W TWENTY	0
-1.711724	W TWO	0
-1.95739	W W	0
-1.95739	W X	0
-1.83789	W Y	0
-1.83789	W Z	0
-1.605207	X B	0
-1.359542	X C	0
-1.605207	X E	0
-1.605207	X EIGHT	0
-1.605207	X F	0
-1.605207	X FIVE	0
-1.605207	X FOUR	0
-1.605207	X G	0
-1.605207	X H	0
-1.605207	X I	0
-1.605207	X K	0
-1.605207	X L	0
-1.605207	X N	0
-1.605207	X NINE	0
-1.605207	X P	0
-1.605207	X R	0
-1.359542	X S	0
-1.605207	X SEVENTY	0
-1.605207	X THREE	0
-1.359542	X TWO	0
-1.605207	X V	0
-1.605207	X W	0
-1.359542	X X	0
-1.359542	X Y	0
-1.605207	X Z	0
-1.359542	X ZERO	-0.01585573
-0.4839607	Y </s>	0
-1.906237	Y A	0
-1.660572	Y B	0
-1.786737	Y D	0
-1.906237	Y E	0
-1.660572	Y EIGHT	0
-1.660572	Y F	0
-1.906237	Y G	0
-1.786737	Y H	0
-1.906237	Y J	0
-1.10721	Y L	0
-1.906237	Y M	0
-1.660572	Y N	0
-1.906237	Y O	0
-1.660572	Y ONE	0
-1.906237	Y P	0
-1.906237	Y Q	0
-1.906237	Y R	0
-1.906237	Y SEVEN	0
-1.906237	Y T	0
-1.906237	Y TEN	0
-1.906237	Y THREE	0
-1.660572	Y U	0
-1.660572	Y V	0
-1.660572	Y W	0
-1.906237	Y Y	0
-1.660572	Y Z	0
-0.02020339	YES </s>	0
-1.051152	Z </s>	0
-1.051152	Z A	0
-1.75327	Z C	0
-1.75327	Z D	0
-1.63377	Z E	-0.1437733
-1.75327	Z EIGHT	0
-1.75327	Z F	0
-1.75327	Z G	0
-1.75327	Z H	0
-1.63377	Z I	0
-1.75327	Z K	0
-1.75327	Z L	0
-1.63377	Z NINE	0
-1.75327	Z NINETY	0
-1.63377	Z O	0
-1.507604	Z R	-0.3141539
-1.75327	Z SEVEN	0
-1.75327	Z SIX	0
-1.507604	Z SIXTY	-0.2229812
-1.75327	Z T	0
-1.75327	Z TWENTY	0
-1.75327	Z TWO	0
-1.75327	Z U	0
-1.75327	Z W	0
-1.507604	Z X	0
-1.507604	Z Y	0
-1.75327	Z Z	0
-0.30103	ZERO </s>	0
-1.65636	ZERO EIGHT	0
-1.65636	ZERO FIVE	0
-1.410694	ZERO FOUR	0
-1.53686	ZERO ONE	-0.04953212
-1.410694	ZERO SEVEN	0
-1.268034	ZERO SIX	0.004195914
-1.410694	ZERO TWO	0
-1.65636	ZERO ZERO	0
\3-grams:

-1.160794	<s> A G
-0.8648967	<s> A L
-0.8648967	<s> A M
-1.160794	<s> A S
-0.2908655	<s> AUGUST TWENTY
-1.431861	<s> B A
-0.7512805	<s> B E
-1.431861	<s> B O
-0.447158	<s> B R
-1.135964	<s> B U
-0.9192544	<s> C A
-0.9192544	<s> C E
-0.9192544	<s> C H
-1.215152	<s> C L
-1.215152	<s> C O
-0.5681934	<s> D A
-0.5681934	<s> D O
-0.7993587	<s> E A
-1.160794	<s> E L
-0.8648967	<s> E R
-0.8877928	<s> EIGHT EIGHT
-1.021189	<s> ENTER EIGHT
-1.547547	<s> ENTER FIFTY
-1.228402	<s> ENTER FIVE
-1.613085	<s> ENTER FORTY
-1.228402	<s> ENTER FOUR
-1.413291	<s> ENTER NINE
-1.613085	<s> ENTER NINETY
-1.413291	<s> ENTER ONE
-0.9700368	<s> ENTER SEVEN
-1.413291	<s> ENTER SEVENTY
-1.021189	<s> ENTER SIX
-1.021189	<s> ENTER SIXTY
-1.613085	<s> ENTER THIRTY
-1.908982	<s> ENTER THREE
-1.228402	<s> ENTER TWO
-1.503217	<s> ERASE C
-1.503217	<s> ERASE E
-1.503217	<s> ERASE G
-1.503217	<s> ERASE I
-1.503217	<s> ERASE J
-1.207319	<s> ERASE O
-1.503217	<s> ERASE Q
-1.503217	<s> ERASE S
-1.207319	<s> ERASE V
-1.503217	<s> ERASE W
-0.6651034	<s> F E
-0.7993587	<s> F I
-1.160794	<s> F R
-0.8877928	<s> FIFTY ONE
-0.5918955	<s> FIFTY SIX
-0.8929254	<s> FIVE ONE
-0.8929254	<s> FIVE SIX
-0.8273874	<s> FIVE TWO
-1.476065	<s> FOUR EIGHT
-1.114629	<s> FOUR FOUR
-1.476065	<s> FOUR OH
-0.4121805	<s> FOUR ONE
-1.476065	<s> FOUR SEVEN
-0.7954841	<s> FOUR TWO
-1.160794	<s> G A
-0.8648967	<s> G I
-0.8648967	<s> G L
-1.160794	<s> G R
-0.04139268	<s> GO </s>
-0.8537163	<s> H A
-1.215152	<s> H I
-0.8537163	<s> H O
-0.03476211	<s> HELP </s>
-1.263456	<s> J A
-0.902021	<s> J E
-0.902021	<s> J O
-0.5918955	<s> K A
-0.8877928	<s> K E
-1.063884	<s> L E
-1.063884	<s> L I
-1.063884	<s> L O
-1.063884	<s> L R
-1.063884	<s> L U
-0.3309932	<s> M A
-1.461824	<s> M E
-1.165927	<s> M I
-0.7549642	<s> M O
-0.4180658	<s> N E
-0.02632894	<s> NO </s>
-0.643048	<s> O A
-0.643048	<s> O L
-0.4618241	<s> OH SIX
-0.1737116	<s> ONE FIVE
-1.943744	<s> ONE FOUR
-1.943744	<s> ONE NINE
-1.448053	<s> ONE OH
-1.943744	<s> ONE SEVEN
-1.943744	<s> ONE TEN
-1.943744	<s> ONE THOUSAND
-1.943744	<s> ONE TWENTY
-1.582309	<s> ONE TWO
-1.943744	<s> ONE ZERO
-1.777095	<s> P A
-1.481197	<s> P G
-1.777095	<s> P H
-0.1296339	<s> P I
-1.281404	<s> P O
-1.777095	<s> P T
-1.777095	<s> P U
-1.098646	<s> R I
-0.7372108	<s> R O
-0.02482358	<s> REPEAT </s>
-1.459658	<s> RUBOUT C
-1.755555	<s> RUBOUT E
-1.259864	<s> RUBOUT F
-1.755555	<s> RUBOUT G
-1.459658	<s> RUBOUT H
-1.755555	<s> RUBOUT I
-1.459658	<s> RUBOUT J
-1.459658	<s> RUBOUT M
-1.394119	<s> RUBOUT N
-1.259864	<s> RUBOUT O
-1.755555	<s> RUBOUT P
-1.755555	<s> RUBOUT Q
-1.459658	<s> RUBOUT R
-1.459658	<s> RUBOUT T
-1.394119	<s> RUBOUT U
-1.755555	<s> RUBOUT V
-1.755555	<s> RUBOUT W
-1.459658	<s> RUBOUT Z
-1.461824	<s> S A
-1.165927	<s> S E
-1.461824	<s> S H
-1.461824	<s> S P
-0.5740313	<s> S T
-1.165927	<s> S U
-1.461824	<s> S W
-1.026096	<s> SEVEN THREE
-0.9242974	<s> SIX EIGHT
-0.7900422	<s> SIX SIX
-0.9898355	<s> SIX THREE
-0.03778856	<s> START </s>
-0.02632894	<s> STOP </s>
-1.063884	<s> T A
-0.7679867	<s> T H
-1.063884	<s> T I
-1.063884	<s> T R
-1.188823	<s> THREE FOUR
-0.8929254	<s> THREE OH
-1.188823	<s> THREE SIX
-1.188823	<s> THREE TWENTY
-1.188823	<s> THREE TWO
-0.7628541	<s> TWELVE TWENTY
-1.364914	<s> TWO FOUR
-1.364914	<s> TWO OH
-1.364914	<s> TWO ONE
-1.364914	<s> TWO SEVEN
-0.3802112	<s> TWO SIX
-0.7679867	<s> V A
-0.5681934	<s> V E
-0.4890122	<s> W A
-0.9847028	<s> W I
-0.02020339	<s> YES </s>
-1.063884	A C A
-1.063884	A C E
-1.063884	A C K
-1.063884	A C O
-0.6888055	A D </s>
-0.9847028	A D R
-0.4618241	A E L
-0.5867628	A G L
-0.5867628	A H O
-0.2857328	A HALF </s>
-1.130831	A L D
-0.6351402	A L E
-1.130831	A L L
-1.098646	A M E
-0.8027489	A M P
-1.098646	A M S
-0.675783	A N </s>
-1.021207	A N D
-0.8869522	A N E
-1.382643	A N T
-1.597487	A R A
-1.236051	A R D
-1.101796	A R E
-1.301589	A R G
-1.236051	A R K
-1.236051	A R L
-1.301589	A R N
-1.101796	A R R
-1.301589	A R T
-1.301589	A R Y
-0.9847028	A S </s>
-0.6232674	A S T
-0.9847028	A T E
-0.9847028	A T H
-0.6232674	A T T
-0.3570242	A V E
-0.7679867	A V I
-0.6836728	A Y L
-0.2857328	AND A HALF
-0.4618241	AND EIGHTY SIX
-0.4618241	AUGUST TWENTY SECOND
-0.3341102	B A R
-1.026096	B E A
-0.5304048	B E R
-0.6836728	B O R
-0.6836728	B O U
-1.026096	B R A
-0.3455151	B R O
-0.4618241	B S O
-0.2857328	B SEVENTY NINE
-0.008433168	B U R
-0.8298009	C A </s>
-0.8298009	C A L
-0.8298009	C A R
-0.5339035	C E </s>
-0.8298009	C E N
-0.4802137	C H A
-1.160794	C H R
-1.160794	C H T
-0.643048	C K </s>
-0.9389454	C K W
-0.2671634	C O N
-0.2857328	C THIRTY FIVE
-1.026096	D A </s>
-1.026096	D A L
-0.6646601	D A V
-0.8298009	D E </s>
-0.5339035	D E R
-0.643048	D O W
-0.4432546	D R I
-0.6836728	D W I
-0.6836728	D W O
-0.4618241	D Y </s>
-1.215152	E A C
-1.215152	E A D
-0.9192544	E A N
-0.7194611	E A S
-1.215152	E A V
-0.8298009	E D R
-0.9847028	E E P
-0.9847028	E E S
-0.2908655	E I L
-0.2857328	E J Q
-0.9656901	E L </s>
-1.031228	E L D
-1.327126	E L E
-0.4393327	E L L
-0.5867628	E M B
-0.4607309	E N </s>
-1.103779	E N D
-0.9039855	E N N
-1.103779	E N T
-0.9039855	E N U
-0.4669567	E P H
-0.7692047	E R </s>
-1.476065	E R A
-1.180167	E R E
-0.9803739	E R I
-1.476065	E R K
-1.180167	E R L
-1.476065	E R O
-1.476065	E R S
-1.476065	E R T
-0.5775099	E S </s>
-0.5263574	E T </s>
-0.5918955	E T T
-0.2320855	E V E
-0.8929254	E W </s>
-1.188823	E W I
-0.6931321	E W O
-0.8929254	E W Y
-0.4014187	E Y </s>
-0.7628541	EIGHT EIGHT FOUR
-0.7628541	EIGHT EIGHT NINE
-0.9847028	EIGHT FIVE </s>
-0.9847028	EIGHT FIVE SIX
-0.7993587	EIGHT FOUR </s>
-0.8648967	EIGHT FOUR FOUR
-1.160794	EIGHT FOUR ONE
-0.8648967	EIGHT FOUR SIX
-1.160794	EIGHT FOUR TWO
-0.4618241	EIGHT HUNDRED AND
-0.6836728	EIGHT NINE </s>
-0.6836728	EIGHT NINE SIX
-0.8298009	EIGHT ONE NINE
-0.5918955	EIGHT SEVEN </s>
-0.2857328	EIGHT SEVENTY ONE
-0.7628541	EIGHT SIX </s>
-0.7679867	EIGHT THREE </s>
-1.063884	EIGHT THREE ONE
-1.063884	EIGHT THREE ZERO
-0.9389454	EIGHT TWO EIGHT
-0.9389454	EIGHT TWO FOUR
-0.643048	EIGHT TWO SIX
-0.5867628	EIGHT ZERO </s>
-0.4618241	EIGHTY NINE </s>
-0.3222374	EIGHTY SIX </s>
-0.6836728	ENTER FIFTY FOUR
-0.4669567	ENTER FIVE </s>
-0.7628541	ENTER FOUR </s>
-0.7628541	ENTER FOUR FIFTY
-0.5775099	ENTER SEVEN </s>
-0.5867628	ENTER SEVENTY ONE
-0.5918955	ENTER SIX </s>
-0.5918955	ENTER SIXTY </s>
-0.8877928	ENTER SIXTY ONE
-0.7628541	ENTER TWO </s>
-0.7628541	ENTER TWO OH
-0.4618241	ERASE O T
-0.8298009	F I F
-0.3877755	F O R
-0.6836728	F R A
-0.6836728	F R O
-0.5867628	F T H
-0.4618241	F TWO </s>
-0.2857328	FIFTEENTH NINETEEN SIXTY
-0.2671634	FIFTY EIGHT </s>
-0.2908655	FIFTY FIVE </s>
-0.1659267	FIFTY FOUR </s>
-0.2671634	FIFTY ONE </s>
-0.4669567	FIFTY SIX </s>
-0.2908655	FIFTY TWO </s>
-0.1659267	FIRST NINETEEN SIXTY
-0.2671634	FIVE EIGHT </s>
-0.7628541	FIVE FIVE </s>
-0.7628541	FIVE FOUR </s>
-0.7628541	FIVE FOUR SIX
-0.8298009	FIVE NINE </s>
-0.8877928	FIVE OH </s>
-0.8877928	FIVE OH FOUR
-0.8648967	FIVE ONE </s>
-0.8648967	FIVE ONE FOUR
-0.8648967	FIVE ONE ONE
-1.160794	FIVE ONE THREE
-0.7628541	FIVE SEVEN </s>
-0.7628541	FIVE SEVEN EIGHT
-0.8298009	FIVE SIX FOUR
-0.8298009	FIVE SIX ONE
-0.643048	FIVE THREE FOUR
-0.643048	FIVE THREE THREE
-1.321521	FIVE TWO </s>
-1.521314	FIVE TWO FOUR
-1.321521	FIVE TWO OH
-0.30103	FIVE TWO ONE
-1.817212	FIVE TWO SEVEN
-1.110352	FIVE TWO THREE
-0.8782664	FIVE TWO TWO
-1.817212	FIVE TWO ZERO
-0.6836728	FIVE ZERO </s>
-0.6836728	FIVE ZERO FOUR
-0.1659267	FORTY EIGHT </s>
-0.09107213	FORTY FIVE </s>
-0.1659267	FORTY FOUR </s>
-0.4618241	FORTY NINE </s>
-0.2857328	FORTY ONE </s>
-0.2908655	FORTY SEVEN </s>
-0.1659267	FORTY TWO </s>
-0.8877928	FOUR EIGHT FOUR
-0.8877928	FOUR EIGHT TWO
-0.8298009	FOUR FIVE ONE
-0.4802137	FOUR FOUR </s>
-1.160794	FOUR FOUR FOUR
-1.160794	FOUR FOUR ONE
-1.160794	FOUR FOUR SEVEN
-0.7628541	FOUR OH THREE
-1.031228	FOUR ONE </s>
-1.327126	FOUR ONE OH
-0.2284793	FOUR ONE TWO
-0.643048	FOUR SEVEN </s>
-0.9389454	FOUR SEVEN TWO
-0.8877928	FOUR SIX </s>
-0.8877928	FOUR SIX SEVEN
-0.6836728	FOUR THREE </s>
-0.8929254	FOUR TWO </s>
-0.6931321	FOUR TWO ONE
-0.4819629	FOUR TWO TWO
-0.4432546	G A R
-0.9389454	G A SIX
-0.04390549	G H </s>
-1.700706	G H O
-0.5918955	G I B
-0.4432546	G L E
-0.9389454	G L G
-1.346431	H A E
-1.050533	H A N
-0.6395708	H A R
-1.346431	H A V
-1.346431	H A W
-0.8877928	H E A
-0.8877928	H E W
-1.098646	H O B
-1.098646	H O U
-0.4618241	H R I
-0.4618241	H T E
-0.4669567	HUNDRED AND EIGHTY
-0.5867628	I A </s>
-0.4618241	I B S
-1.130831	I C </s>
-0.4502505	I C H
-1.130831	I C K
-0.6836728	I D </s>
-0.9389454	I E </s>
-0.9389454	I E L
-0.9389454	I E R
-0.5867628	I F T
-0.5867628	I G H
-0.9847028	I L </s>
-0.4890122	I L L
-0.5867628	I M O
-0.8112314	I N </s>
-1.306922	I N C
-0.8112314	I N D
-0.9454867	I N G
-1.306922	I N I
-1.306922	I N S
-0.4669567	I S </s>
-1.683673	I T H
-0.03621217	I T T
-0.2671634	I V E
-0.4618241	J A M
-0.6836728	J E A
-0.8298009	J O H
-0.8298009	J O S
-0.1879821	K A R
-0.8877928	K E E
-0.5867628	K I N
-0.2857328	K Y </s>
-1.130831	L A </s>
-0.6351402	L A C
-0.6351402	L A N
-0.6232674	L D </s>
-0.4929155	L E </s>
-1.431861	L E N
-1.431861	L E S
-1.431861	L E W
-0.9361702	L E Y
-0.4618241	L G A
-0.7679867	L I E
-0.7679867	L I N
-0.8785399	L L </s>
-0.944078	L L E
-0.7442846	L L I
-1.239975	L L Y
-0.3877755	L Y </s>
-1.306922	M A N
-0.3679768	M A R
-1.306922	M A S
-1.306922	M A T
-0.5918955	M E R
-0.8877928	M E S
-0.7628541	M I C
-0.7628541	M I T
-1.026096	M O N
-0.3455151	M O R
-0.5867628	M P S
-0.7301981	N A </s>
-1.026096	N A T
-0.6836728	N C E
-0.8027489	N D </s>
-0.6029555	N D A
-1.098646	N D E
-1.098646	N D Y
-0.9242974	N E </s>
-1.285733	N E G
-0.9898355	N E L
-0.9898355	N E W
-1.285733	N E Y
-0.8877928	N G H
-1.026096	N I </s>
-1.026096	N I A
-0.7301981	N I C
-0.9389454	N N </s>
-0.9389454	N N I
-0.9389454	N T R
-0.643048	N T Z
-0.1879821	N U E
-0.8298009	NINE FIVE TWO
-0.5867628	NINE FOUR </s>
-0.2908655	NINE NINE </s>
-0.3877755	NINE ONE </s>
-0.4890122	NINE SIX </s>
-0.9847028	NINE SIX SIX
-0.6836728	NINE THREE </s>
-0.6836728	NINE THREE FIVE
-0.6836728	NINE TWO </s>
-0.6836728	NINE TWO TWO
-0.2857328	NINETEEN FIFTY TWO
-0.2857328	NINETEEN FORTY FOUR
-0.1659267	NINETEEN SEVENTY </s>
-1.031228	NINETEEN SIXTY FIVE
-0.4393327	NINETEEN SIXTY NINE
-1.327126	NINETEEN SIXTY ONE
-0.9656901	NINETEEN SIXTY SEVEN
-0.2857328	NINETY FIVE </s>
-0.2857328	NINETY FOUR </s>
-0.2857328	NINETY SIX </s>
-0.5339035	O A D
-0.6836728	O B A
-0.6836728	O B E
-0.2583649	O D </s>
-0.2908655	O H N
-0.7628541	O M </s>
-0.7628541	O M A
-0.7628541	O M E
-0.3679768	O N </s>
-0.9361702	O N A
-0.9361702	O N I
-0.3917863	O O D
-0.9675591	O R </s>
-0.9675591	O R D
-0.902021	O R E
-1.263456	O R T
-0.3877755	O S E
-0.7628541	O T H
-0.9847028	O U S
-0.9847028	O U T
-0.643048	O W </s>
-0.643048	O W N
-0.2857328	O Y </s>
-0.4890122	OH EIGHT </s>
-0.2671634	OH FIVE </s>
-0.4618241	OH FOUR FOUR
-0.6836728	OH ONE </s>
-0.5263574	OH SEVEN </s>
-0.3833037	OH SIX </s>
-1.063884	OH SIX NINE
-0.6836728	OH THREE </s>
-0.3921021	OH TWO </s>
-0.643048	ONE EIGHT </s>
-0.5867628	ONE FIFTY EIGHT
-1.358244	ONE FIVE </s>
-1.853935	ONE FIVE FIVE
-1.558037	ONE FIVE OH
-1.173354	ONE FIVE ONE
-1.853935	ONE FIVE SIX
-1.358244	ONE FIVE THREE
-0.1702617	ONE FIVE TWO
-0.9389454	ONE FOUR EIGHT
-0.9389454	ONE FOUR NINE
-0.9389454	ONE FOUR SEVEN
-0.9389454	ONE FOUR THREE
-1.026096	ONE NINE </s>
-1.026096	ONE NINE FIVE
-0.7301981	ONE NINE SIX
-0.8349335	ONE OH SEVEN
-1.130831	ONE OH SIX
-0.8349335	ONE OH TWO
-0.8298009	ONE ONE FIVE
-0.09691001	ONE SEVEN </s>
-0.5339035	ONE SIX </s>
-0.2857328	ONE TEN </s>
-0.2857328	ONE THIRTY ONE
-0.2857328	ONE THOUSAND </s>
-0.1047354	ONE THREE </s>
-1.130831	ONE THREE THREE
-1.103779	ONE TWO </s>
-1.399676	ONE TWO EIGHT
-0.7190958	ONE TWO FIVE
-1.038241	ONE TWO FOUR
-1.103779	ONE TWO SIX
-0.9039855	ONE TWO TWO
-0.1659267	P G H
-0.7628541	P H </s>
-0.7628541	P H E
-0.01888534	P I T
-0.6836728	P L A
-0.3877755	P L E
-0.7628541	P O M
-0.1659267	P R I
-1.098646	R A D
-0.7372108	R A N
-0.2857328	R C H
-0.2583649	R D </s>
-0.8692234	R E </s>
-1.364914	R E A
-1.364914	R E E
-1.364914	R E L
-0.8692234	R E N
-1.069017	R E T
-1.003479	R E W
-1.700706	R G </s>
-1.404809	R G A
-0.07255067	R G H
-0.902021	R I C
-0.7677658	R I N
-1.263456	R I S
-0.7677658	R I V
-0.6646601	R K </s>
-1.026096	R K E
-0.643048	R L A
-0.9389454	R L E
-0.9389454	R L Y
-0.4669567	R N E
-1.011025	R O A
-1.306922	R O B
-0.9454867	R O N
-1.306922	R O O
-1.011025	R O S
-1.306922	R O W
-0.5339035	R R E
-0.2908655	R S O
-0.4683655	R T </s>
-0.3921021	R Y </s>
-0.6836728	RUBOUT N A
-0.6836728	RUBOUT U T
-0.009340026	S B U
-0.5918955	S E P
-0.6836728	S H A
-0.7628541	S K I
-0.4618241	S M A
-0.1249387	S O N
-0.6836728	S P R
-1.215152	S T </s>
-0.2304489	S T E
-1.215152	S T O
-0.2857328	SECOND NINETEEN SIXTY
-0.5918955	SEVEN EIGHT </s>
-0.8877928	SEVEN EIGHT EIGHT
-0.6836728	SEVEN FIVE SEVEN
-0.4618241	SEVEN FORTY SEVEN
-0.5867628	SEVEN FOUR </s>
-0.7628541	SEVEN NINE ONE
-0.7628541	SEVEN NINE TWO
-0.7628541	SEVEN OH EIGHT
-0.4618241	SEVEN SEVEN </s>
-0.5867628	SEVEN SIX </s>
-0.2857328	SEVEN TEN </s>
-0.4618241	SEVEN TWENTY NINE
-0.4618241	SEVEN ZERO </s>
-0.4618241	SEVENTY NINE </s>
-0.05115252	SEVENTY ONE </s>
-0.4618241	SEVENTY SEVEN </s>
-0.09107213	SEVENTY TWO </s>
-1.086746	SIX EIGHT </s>
-1.382643	SIX EIGHT FIVE
-1.021207	SIX EIGHT FOUR
-1.382643	SIX EIGHT ONE
-0.8869522	SIX EIGHT SEVEN
-1.382643	SIX EIGHT SIX
-0.675783	SIX EIGHT THREE
-0.4669567	SIX FIVE </s>
-0.5304048	SIX FOUR </s>
-1.026096	SIX FOUR FIVE
-0.2671634	SIX NINE </s>
-0.7628541	SIX OH EIGHT
-0.8877928	SIX ONE </s>
-0.8877928	SIX ONE FIVE
-0.7628541	SIX SEVEN </s>
-0.7628541	SIX SEVEN OH
-0.9847028	SIX SIX </s>
-0.9847028	SIX SIX FIVE
-0.9847028	SIX SIX ONE
-0.9847028	SIX SIX TWO
-0.9389454	SIX THREE </s>
-0.9389454	SIX THREE ONE
-0.8298009	SIX TWO </s>
-0.3222374	SIXTY EIGHT </s>
-0.3222374	SIXTY FIVE </s>
-0.4014187	SIXTY FOUR </s>
-0.02996322	SIXTY NINE </s>
-0.05115252	SIXTY ONE </s>
-0.04139268	SIXTY SEVEN </s>
-0.1659267	SIXTY SIX </s>
-0.1492205	SIXTY THREE </s>
-0.1879821	SIXTY TWO </s>
-1.327126	T E </s>
-1.327126	T E D
-1.031228	T E N
-0.9656901	T E R
-0.9656901	T E V
-0.7194611	T H </s>
-0.5082919	T H A
-1.215152	T H E
-1.215152	T H O
-0.6836728	T I E
-0.6836728	T I M
-0.4618241	T L E
-0.2857328	T M A
-0.7628541	T O N
-0.1879821	T R E
-0.009545318	T S B
-1.725066	T T </s>
-1.229375	T T E
-1.725066	T T H
-0.08715018	T T S
-0.09107213	T Z </s>
-0.4618241	THIRD NINETEEN SIXTY
-0.1659267	THIRTIETH NINETEEN SIXTY
-0.4618241	THIRTY EIGHT </s>
-0.4014187	THIRTY FIVE </s>
-0.2857328	THIRTY NINE </s>
-0.3921021	THIRTY ONE </s>
-0.2857328	THIRTY SEVEN </s>
-0.2857328	THIRTY SIX </s>
-0.2857328	THIRTY THREE </s>
-0.2908655	THIRTY TWO </s>
-0.2857328	THOUSAND EIGHT HUNDRED
-0.2671634	THREE EIGHT </s>
-0.8298009	THREE FIVE </s>
-0.7628541	THREE FOUR FOUR
-0.5867628	THREE NINE </s>
-0.7628541	THREE ONE TWO
-0.6836728	THREE SEVEN FIVE
-0.7628541	THREE SIX THREE
-0.5867628	THREE SIXTY FOUR
-0.8877928	THREE THREE </s>
-0.8877928	THREE THREE SEVEN
-0.4180658	THREE TWO </s>
-1.098646	THREE TWO EIGHT
-1.098646	THREE TWO SEVEN
-1.098646	THREE TWO THREE
-0.5867628	THREE ZERO </s>
-0.2857328	TWELFTH NINETEEN SIXTY
-0.6836728	TWENTY EIGHT </s>
-0.6836728	TWENTY EIGHT SIXTY
-0.5867628	TWENTY NINE </s>
-0.2857328	TWENTY SECOND NINETEEN
-0.3877755	TWENTY SIX </s>
-0.2857328	TWENTY THIRD NINETEEN
-0.1879821	TWENTY THREE </s>
-0.7024487	TWO EIGHT </s>
-1.063884	TWO EIGHT ONE
-0.7679867	TWO EIGHT THREE
-1.063884	TWO FIVE </s>
-0.7024487	TWO FIVE TWO
-0.5331154	TWO FOUR </s>
-1.239975	TWO FOUR ONE
-0.5331154	TWO FOUR TWO
-0.8877928	TWO NINE </s>
-0.8877928	TWO NINE THREE
-1.026096	TWO OH EIGHT
-1.026096	TWO OH FIVE
-0.7301981	TWO OH SIX
-0.9943185	TWO ONE </s>
-1.379002	TWO ONE EIGHT
-1.674899	TWO ONE FIVE
-1.179208	TWO ONE OH
-0.4860761	TWO ONE SEVEN
-1.674899	TWO ONE SIX
-0.6901961	TWO ONE THREE
-1.379002	TWO ONE TWO
-0.5304048	TWO SEVEN </s>
-1.026096	TWO SEVEN ONE
-0.6843337	TWO SIX </s>
-0.1760913	TWO SIX EIGHT
-0.4618241	TWO THIRTY ONE
-1.063884	TWO THREE </s>
-0.3833037	TWO THREE TWO
-0.9514101	TWO TWO </s>
-1.151204	TWO TWO NINE
-1.151204	TWO TWO OH
-0.7402409	TWO TWO ONE
-1.447101	TWO TWO SEVEN
-1.447101	TWO TWO SIX
-1.151204	TWO TWO TWO
-1.447101	TWO TWO ZERO
-0.4669567	TWO ZERO </s>
-0.7628541	TWO ZERO SEVEN
-0.1879821	U E </s>
-0.4618241	U L I
-0.06963593	U R G
-1.421199	U R Y
-0.7628541	U S E
-0.7628541	U S K
-0.643048	V A L
-0.9389454	V A N
-0.4586379	V E </s>
-0.4586379	V E N
-0.85074	V E R
-0.8298009	V I D
-0.8298009	V I L
-0.2857328	V Q D
-0.2857328	V SEVEN </s>
-0.4432546	W A R
-0.5867628	W E L
-0.2857328	W EIGHT </s>
-0.8298009	W I C
-0.8298009	W I L
-0.8298009	W I S
-0.6836728	W N </s>
-0.2320855	W O O
-0.2857328	X ZERO </s>
-0.4618241	Z E L
-0.2857328	Z R V
-0.2857328	Z SIXTY NINE
-0.4618241	ZERO ONE FIVE
-0.4669567	ZERO SIX </s>
\end\
